digraph Tree {
node [shape=box, style="filled, rounded", color="black", fontname="helvetica"] ;
edge [fontname="helvetica"] ;
0 [label="Bio <= 3.0\ngini = 0.49\nsamples = 7\nvalue = [3, 4]\nclass = kein Interesse", fillcolor="#cee6f8"] ;
1 [label="gini = 0.0\nsamples = 3\nvalue = [3, 0]\nclass = Interesse", fillcolor="#e58139"] ;
0 -> 1 [labeldistance=2.5, labelangle=45, headlabel="True"] ;
2 [label="gini = 0.0\nsamples = 4\nvalue = [0, 4]\nclass = kein Interesse", fillcolor="#399de5"] ;
0 -> 2 [labeldistance=2.5, labelangle=-45, headlabel="False"] ;
}